digraph Tree {
node [shape=box, style="filled, rounded", color="black", fontname=helvetica] ;
edge [fontname=helvetica] ;
0 [label=<respuesta_iconf_faja_score &le; 9.5<br/>entropy = 0.758<br/>samples = 3476<br/>value = [2715, 761]<br/>class = BIEN>, fillcolor="#eca470"] ;
1 [label=<calificacion_cliente &le; 0.5<br/>entropy = 0.592<br/>samples = 2125<br/>value = [1821, 304]<br/>class = BIEN>, fillcolor="#e9965a"] ;
0 -> 1 [labeldistance=2.5, labelangle=45, headlabel="True"] ;
2 [label=<plazo_solicitado &le; 12.5<br/>entropy = 0.776<br/>samples = 704<br/>value = [543, 161]<br/>class = BIEN>, fillcolor="#eda674"] ;
1 -> 2 ;
3 [label=<edad &le; 25.5<br/>entropy = 0.572<br/>samples = 355<br/>value = [307, 48]<br/>class = BIEN>, fillcolor="#e99558"] ;
2 -> 3 ;
4 [label=<entropy = 0.835<br/>samples = 98<br/>value = [72, 26]<br/>class = BIEN>, fillcolor="#eeae80"] ;
3 -> 4 ;
5 [label=<respuesta_iconf_faja_score &le; 6.5<br/>entropy = 0.422<br/>samples = 257<br/>value = [235, 22]<br/>class = BIEN>, fillcolor="#e78d4c"] ;
3 -> 5 ;
6 [label=<tiene_ips &le; 0.5<br/>entropy = 0.327<br/>samples = 184<br/>value = [173, 11]<br/>class = BIEN>, fillcolor="#e78946"] ;
5 -> 6 ;
7 [label=<entropy = 0.465<br/>samples = 81<br/>value = [73, 8]<br/>class = BIEN>, fillcolor="#e88f4f"] ;
6 -> 7 ;
8 [label=<entropy = 0.19<br/>samples = 103<br/>value = [100, 3]<br/>class = BIEN>, fillcolor="#e6853f"] ;
6 -> 8 ;
9 [label=<entropy = 0.612<br/>samples = 73<br/>value = [62, 11]<br/>class = BIEN>, fillcolor="#ea975c"] ;
5 -> 9 ;
10 [label=<tiene_ips &le; 0.5<br/>entropy = 0.908<br/>samples = 349<br/>value = [236, 113]<br/>class = BIEN>, fillcolor="#f1bd98"] ;
2 -> 10 ;
11 [label=<respuesta_max_comp_mensual_ap &le; 1592500.0<br/>entropy = 0.977<br/>samples = 190<br/>value = [112, 78]<br/>class = BIEN>, fillcolor="#f7d9c3"] ;
10 -> 11 ;
12 [label=<respuesta_iconf_cons_cant_u36m &le; 9.5<br/>entropy = 0.998<br/>samples = 133<br/>value = [70, 63]<br/>class = BIEN>, fillcolor="#fcf2eb"] ;
11 -> 12 ;
13 [label=<entropy = 0.991<br/>samples = 81<br/>value = [36, 45]<br/>class = MAL>, fillcolor="#d7ebfa"] ;
12 -> 13 ;
14 [label=<entropy = 0.931<br/>samples = 52<br/>value = [34, 18]<br/>class = BIEN>, fillcolor="#f3c4a2"] ;
12 -> 14 ;
15 [label=<entropy = 0.831<br/>samples = 57<br/>value = [42, 15]<br/>class = BIEN>, fillcolor="#eeae80"] ;
11 -> 15 ;
16 [label=<ingreso_bruto_mensual &le; 2525112.5<br/>entropy = 0.76<br/>samples = 159<br/>value = [124, 35]<br/>class = BIEN>, fillcolor="#eca571"] ;
10 -> 16 ;
17 [label=<entropy = 0.923<br/>samples = 74<br/>value = [49, 25]<br/>class = BIEN>, fillcolor="#f2c19e"] ;
16 -> 17 ;
18 [label=<entropy = 0.523<br/>samples = 85<br/>value = [75, 10]<br/>class = BIEN>, fillcolor="#e89253"] ;
16 -> 18 ;
19 [label=<plazo_solicitado &le; 19.5<br/>entropy = 0.471<br/>samples = 1421<br/>value = [1278, 143]<br/>class = BIEN>, fillcolor="#e88f4f"] ;
1 -> 19 ;
20 [label=<ingreso_bruto_mensual &le; 3804055.0<br/>entropy = 0.35<br/>samples = 851<br/>value = [795, 56]<br/>class = BIEN>, fillcolor="#e78a47"] ;
19 -> 20 ;
21 [label=<valor_cuota &le; 242250.0<br/>entropy = 0.412<br/>samples = 629<br/>value = [577, 52]<br/>class = BIEN>, fillcolor="#e78c4b"] ;
20 -> 21 ;
22 [label=<ingreso_neto_mensual &le; 1834742.5<br/>entropy = 0.2<br/>samples = 193<br/>value = [187, 6]<br/>class = BIEN>, fillcolor="#e6853f"] ;
21 -> 22 ;
23 [label=<entropy = 0.356<br/>samples = 89<br/>value = [83, 6]<br/>class = BIEN>, fillcolor="#e78a47"] ;
22 -> 23 ;
24 [label=<entropy = 0.0<br/>samples = 104<br/>value = [104, 0]<br/>class = BIEN>, fillcolor="#e58139"] ;
22 -> 24 ;
25 [label=<valor_cuota &le; 617250.0<br/>entropy = 0.486<br/>samples = 436<br/>value = [390, 46]<br/>class = BIEN>, fillcolor="#e89050"] ;
21 -> 25 ;
26 [label=<entropy = 0.524<br/>samples = 381<br/>value = [336, 45]<br/>class = BIEN>, fillcolor="#e89254"] ;
25 -> 26 ;
27 [label=<entropy = 0.131<br/>samples = 55<br/>value = [54, 1]<br/>class = BIEN>, fillcolor="#e5833d"] ;
25 -> 27 ;
28 [label=<respuesta_iconf_faja_score &le; 6.5<br/>entropy = 0.13<br/>samples = 222<br/>value = [218, 4]<br/>class = BIEN>, fillcolor="#e5833d"] ;
20 -> 28 ;
29 [label=<entropy = 0.0<br/>samples = 145<br/>value = [145, 0]<br/>class = BIEN>, fillcolor="#e58139"] ;
28 -> 29 ;
30 [label=<entropy = 0.295<br/>samples = 77<br/>value = [73, 4]<br/>class = BIEN>, fillcolor="#e68844"] ;
28 -> 30 ;
31 [label=<ingreso_bruto_mensual &le; 2520562.0<br/>entropy = 0.616<br/>samples = 570<br/>value = [483, 87]<br/>class = BIEN>, fillcolor="#ea985d"] ;
19 -> 31 ;
32 [label=<tiene_ips &le; 0.5<br/>entropy = 0.839<br/>samples = 153<br/>value = [112, 41]<br/>class = BIEN>, fillcolor="#efaf81"] ;
31 -> 32 ;
33 [label=<entropy = 0.973<br/>samples = 52<br/>value = [31, 21]<br/>class = BIEN>, fillcolor="#f7d6bf"] ;
32 -> 33 ;
34 [label=<respuesta_max_comp_mensual_ap &le; 1050720.0<br/>entropy = 0.718<br/>samples = 101<br/>value = [81, 20]<br/>class = BIEN>, fillcolor="#eba06a"] ;
32 -> 34 ;
35 [label=<entropy = 0.463<br/>samples = 51<br/>value = [46, 5]<br/>class = BIEN>, fillcolor="#e88f4f"] ;
34 -> 35 ;
36 [label=<entropy = 0.881<br/>samples = 50<br/>value = [35, 15]<br/>class = BIEN>, fillcolor="#f0b78e"] ;
34 -> 36 ;
37 [label=<saldo_actual_deuda_total &le; 14362056.5<br/>entropy = 0.501<br/>samples = 417<br/>value = [371, 46]<br/>class = BIEN>, fillcolor="#e89152"] ;
31 -> 37 ;
38 [label=<respuesta_iconf_faja_score &le; 8.5<br/>entropy = 0.574<br/>samples = 316<br/>value = [273, 43]<br/>class = BIEN>, fillcolor="#e99558"] ;
37 -> 38 ;
39 [label=<entropy = 0.497<br/>samples = 257<br/>value = [229, 28]<br/>class = BIEN>, fillcolor="#e89051"] ;
38 -> 39 ;
40 [label=<entropy = 0.818<br/>samples = 59<br/>value = [44, 15]<br/>class = BIEN>, fillcolor="#eeac7c"] ;
38 -> 40 ;
41 [label=<ingreso_bruto_mensual &le; 4722421.5<br/>entropy = 0.193<br/>samples = 101<br/>value = [98, 3]<br/>class = BIEN>, fillcolor="#e6853f"] ;
37 -> 41 ;
42 [label=<entropy = 0.327<br/>samples = 50<br/>value = [47, 3]<br/>class = BIEN>, fillcolor="#e78946"] ;
41 -> 42 ;
43 [label=<entropy = 0.0<br/>samples = 51<br/>value = [51, 0]<br/>class = BIEN>, fillcolor="#e58139"] ;
41 -> 43 ;
44 [label=<respuesta_iconf_mor_saldo_abiertas_gs &le; 438022.5<br/>entropy = 0.923<br/>samples = 1351<br/>value = [894, 457]<br/>class = BIEN>, fillcolor="#f2c19e"] ;
0 -> 44 [labeldistance=2.5, labelangle=-45, headlabel="False"] ;
45 [label=<calificacion_cliente &le; 0.5<br/>entropy = 0.901<br/>samples = 1298<br/>value = [887, 411]<br/>class = BIEN>, fillcolor="#f1bb95"] ;
44 -> 45 ;
46 [label=<respuesta_iconf_cons_cant_u3m &le; 5.5<br/>entropy = 0.997<br/>samples = 438<br/>value = [234, 204]<br/>class = BIEN>, fillcolor="#fcefe6"] ;
45 -> 46 ;
47 [label=<plazo_solicitado &le; 14.0<br/>entropy = 0.941<br/>samples = 274<br/>value = [176, 98]<br/>class = BIEN>, fillcolor="#f3c7a7"] ;
46 -> 47 ;
48 [label=<respuesta_iconf_cons_cant_u36m &le; 15.5<br/>entropy = 0.826<br/>samples = 131<br/>value = [97, 34]<br/>class = BIEN>, fillcolor="#eead7e"] ;
47 -> 48 ;
49 [label=<entropy = 0.964<br/>samples = 67<br/>value = [41, 26]<br/>class = BIEN>, fillcolor="#f5d1b7"] ;
48 -> 49 ;
50 [label=<entropy = 0.544<br/>samples = 64<br/>value = [56, 8]<br/>class = BIEN>, fillcolor="#e99355"] ;
48 -> 50 ;
51 [label=<ingreso_bruto_mensual &le; 3715332.5<br/>entropy = 0.992<br/>samples = 143<br/>value = [79, 64]<br/>class = BIEN>, fillcolor="#fae7d9"] ;
47 -> 51 ;
52 [label=<entropy = 0.998<br/>samples = 93<br/>value = [44, 49]<br/>class = MAL>, fillcolor="#ebf5fc"] ;
51 -> 52 ;
53 [label=<entropy = 0.881<br/>samples = 50<br/>value = [35, 15]<br/>class = BIEN>, fillcolor="#f0b78e"] ;
51 -> 53 ;
54 [label=<ingreso_bruto_mensual &le; 3954935.0<br/>entropy = 0.937<br/>samples = 164<br/>value = [58, 106]<br/>class = MAL>, fillcolor="#a5d3f3"] ;
46 -> 54 ;
55 [label=<plazo_solicitado &le; 17.0<br/>entropy = 0.871<br/>samples = 113<br/>value = [33, 80]<br/>class = MAL>, fillcolor="#8bc5f0"] ;
54 -> 55 ;
56 [label=<entropy = 0.929<br/>samples = 61<br/>value = [21, 40]<br/>class = MAL>, fillcolor="#a1d0f3"] ;
55 -> 56 ;
57 [label=<entropy = 0.779<br/>samples = 52<br/>value = [12, 40]<br/>class = MAL>, fillcolor="#74baed"] ;
55 -> 57 ;
58 [label=<entropy = 1.0<br/>samples = 51<br/>value = [25, 26]<br/>class = MAL>, fillcolor="#f7fbfe"] ;
54 -> 58 ;
59 [label=<plazo_solicitado &le; 17.0<br/>entropy = 0.796<br/>samples = 860<br/>value = [653, 207]<br/>class = BIEN>, fillcolor="#eda978"] ;
45 -> 59 ;
60 [label=<forma_de_pago &le; 2.5<br/>entropy = 0.596<br/>samples = 277<br/>value = [237, 40]<br/>class = BIEN>, fillcolor="#e9965a"] ;
59 -> 60 ;
61 [label=<monto_solicitado &le; 1750000.0<br/>entropy = 0.347<br/>samples = 123<br/>value = [115, 8]<br/>class = BIEN>, fillcolor="#e78a47"] ;
60 -> 61 ;
62 [label=<entropy = 0.525<br/>samples = 59<br/>value = [52, 7]<br/>class = BIEN>, fillcolor="#e89254"] ;
61 -> 62 ;
63 [label=<entropy = 0.116<br/>samples = 64<br/>value = [63, 1]<br/>class = BIEN>, fillcolor="#e5833c"] ;
61 -> 63 ;
64 [label=<respuesta_max_comp_mensual_ap &le; 1623000.0<br/>entropy = 0.737<br/>samples = 154<br/>value = [122, 32]<br/>class = BIEN>, fillcolor="#eca26d"] ;
60 -> 64 ;
65 [label=<entropy = 0.872<br/>samples = 82<br/>value = [58, 24]<br/>class = BIEN>, fillcolor="#f0b58b"] ;
64 -> 65 ;
66 [label=<entropy = 0.503<br/>samples = 72<br/>value = [64, 8]<br/>class = BIEN>, fillcolor="#e89152"] ;
64 -> 66 ;
67 [label=<respuesta_iconf_cons_cant_u3m &le; 2.5<br/>entropy = 0.864<br/>samples = 583<br/>value = [416, 167]<br/>class = BIEN>, fillcolor="#efb488"] ;
59 -> 67 ;
68 [label=<ingreso_bruto_mensual &le; 3170104.0<br/>entropy = 0.727<br/>samples = 222<br/>value = [177, 45]<br/>class = BIEN>, fillcolor="#eca16b"] ;
67 -> 68 ;
69 [label=<entropy = 0.892<br/>samples = 81<br/>value = [56, 25]<br/>class = BIEN>, fillcolor="#f1b991"] ;
68 -> 69 ;
70 [label=<entropy = 0.589<br/>samples = 141<br/>value = [121, 20]<br/>class = BIEN>, fillcolor="#e9965a"] ;
68 -> 70 ;
71 [label=<dias_peor_mora_actual &le; 1.5<br/>entropy = 0.923<br/>samples = 361<br/>value = [239, 122]<br/>class = BIEN>, fillcolor="#f2c19e"] ;
67 -> 71 ;
72 [label=<entropy = 0.89<br/>samples = 299<br/>value = [207, 92]<br/>class = BIEN>, fillcolor="#f1b991"] ;
71 -> 72 ;
73 [label=<entropy = 0.999<br/>samples = 62<br/>value = [32, 30]<br/>class = BIEN>, fillcolor="#fdf7f3"] ;
71 -> 73 ;
74 [label=<entropy = 0.563<br/>samples = 53<br/>value = [7, 46]<br/>class = MAL>, fillcolor="#57ace9"] ;
44 -> 74 ;
}